Language model created by QuickLM on Thu Feb 20 05:16:00 EST 2025
Copyright (c) 1996-2010 Carnegie Mellon University and Alexander I. Rudnicky

The model is in standard ARPA format, designed by Doug Paul while he was at MITRE.

The code that was used to produce this language model is available in Open Source.
Please visit http://www.speech.cs.cmu.edu/tools/ for more information

The (fixed) discount mass is 0.5. The backoffs are computed using the ratio method.
This model based on a corpus of 1 sentences and 9 words

\data\
ngram 1=9
ngram 2=8
ngram 3=7

\1-grams:
-1.2553 </s> -0.3010
-1.2553 <s> -0.2762
-1.2553 FOLDER -0.2762
-1.2553 FORMAT -0.2762
-1.2553 GOOGLE -0.2762
-1.2553 OPEN -0.2762
-1.2553 START -0.2762
-1.2553 STOP -0.2762
-1.2553 YOUTUBE -0.2762

\2-grams:
-0.3010 <s> OPEN 0.0000
-0.3010 FOLDER START 0.0000
-0.3010 FORMAT FOLDER 0.0000
-0.3010 GOOGLE YOUTUBE 0.0000
-0.3010 OPEN GOOGLE 0.0000
-0.3010 START STOP 0.0000
-0.3010 STOP </s> -0.3010
-0.3010 YOUTUBE FORMAT 0.0000

\3-grams:
-0.3010 <s> OPEN GOOGLE
-0.3010 FOLDER START STOP
-0.3010 FORMAT FOLDER START
-0.3010 GOOGLE YOUTUBE FORMAT
-0.3010 OPEN GOOGLE YOUTUBE
-0.3010 START STOP </s>
-0.3010 YOUTUBE FORMAT FOLDER

\end\
